
\data\
ngram 1=12

\1-grams:
-0.6368221	</s>
-99	<s>
-1.113943	eight
-1.113943	five
-1.113943	four
-1.113943	nine
-1.113943	one
-1.113943	seven
-1.113943	six
-1.113943	three
-1.113943	two
-1.113943	zero

\end\
